#ifndef SMALLCNN_2D_WEIGHTS_H
#define SMALLCNN_2D_WEIGHTS_H

static const float conv1_weight[4][9] = {
  { 0.554094f, 0.392468f, 0.178957f, 0.597079f, 0.114085f, 0.176683f, 0.538654f, 0.336122f, 0.073955f },
  { 0.114065f, 0.137730f, 0.703179f, -0.133032f, -0.019580f, 0.780642f, -0.130391f, 0.178899f, 0.592539f },
  { -0.234700f, 0.270340f, 0.302846f, 0.233482f, 0.641413f, 0.555223f, 0.563904f, 0.266925f, 0.853307f },
  { 0.061804f, -0.780045f, -0.949142f, 0.802202f, 0.063354f, 0.242023f, 0.333680f, 0.168952f, 0.696167f },
};

static const float conv1_bias[4] = { -0.013444f, 0.017548f, -0.004011f, 0.004540f };

static const float conv2_weight[4][36] = {
  { -0.475134f, -0.209506f, 0.199144f, -0.155900f, 0.095731f, 0.208536f, 0.333387f, 0.300485f, 0.385259f, -0.021955f, 0.268416f, 0.229395f, 0.283987f, 0.213340f, 0.031714f, 0.297076f, 0.331469f, 0.337372f, -0.172792f, 0.123193f, 0.250336f, 0.049597f, 0.231627f, 0.356356f, 0.372203f, 0.495903f, 0.478930f, -0.716477f, -0.646711f, -0.330678f, -0.714736f, -0.611611f, -0.738940f, -0.691797f, -0.557445f, -0.336893f },
  { 0.072930f, 0.027856f, 0.138768f, 0.170964f, 0.271966f, 0.143164f, 0.278071f, 0.114018f, 0.215705f, 0.177784f, -0.257663f, -0.365583f, 0.293673f, -0.253271f, -0.579558f, 0.073207f, -0.068528f, -0.295048f, 0.201606f, 0.017969f, -0.268567f, 0.264391f, 0.152638f, -0.263951f, 0.269602f, 0.091285f, -0.041437f, -0.501864f, -0.634225f, 0.047872f, -1.076275f, -0.208661f, 0.533819f, -0.910275f, 0.116513f, 0.568998f },
  { 0.352087f, 0.299255f, 0.022757f, 0.435996f, 0.099992f, 0.245523f, 0.116178f, -0.115771f, 0.000113f, 0.182233f, 0.227191f, -0.040131f, -0.068327f, 0.349287f, 0.285854f, -0.217865f, 0.090691f, 0.429732f, 0.232021f, 0.214851f, 0.275174f, 0.309829f, 0.107395f, 0.426720f, -0.096909f, 0.036650f, 0.017455f, 0.734230f, 0.811064f, 0.765115f, 0.734961f, 0.626363f, 0.644847f, 0.015617f, -0.065561f, 0.136483f },
  { 0.391460f, 0.167150f, 0.154504f, -0.034740f, 0.167450f, 0.112238f, -0.387476f, -0.137408f, 0.064498f, 0.022629f, 0.341218f, -0.261727f, 0.074128f, 0.311087f, 0.105863f, -0.351258f, 0.211811f, 0.081949f, 0.033813f, 0.074815f, 0.079389f, -0.189216f, 0.140335f, 0.331166f, -0.175918f, -0.237764f, -0.076653f, 0.128769f, 0.742178f, 0.925533f, -0.755301f, -0.058311f, 0.624554f, -0.549892f, -0.291561f, 0.274837f },
};

static const float conv2_bias[4] = { -0.055265f, -0.173015f, -0.020145f, -0.025048f };

static const float conv3_weight[4][36] = {
  { 0.022966f, 0.050538f, 0.216664f, -0.182999f, -0.210107f, 0.002980f, -0.408713f, -0.162051f, -0.128072f, 0.073004f, -0.006666f, 0.076097f, -0.151006f, -0.160710f, -0.188148f, -0.193005f, -0.174658f, -0.360647f, 0.155883f, 0.293996f, 0.417807f, 0.169982f, 0.171107f, 0.216743f, -0.102920f, -0.175377f, -0.214562f, 0.194397f, 0.105140f, 0.205613f, 0.300954f, 0.145740f, 0.036749f, -0.078289f, -0.114617f, -0.352034f },
  { 0.073179f, -0.073328f, -0.293164f, -0.132647f, -0.113070f, -0.263331f, -0.107630f, -0.190924f, -0.156551f, -0.034741f, 0.025591f, 0.047500f, 0.022864f, 0.027560f, 0.302683f, -0.125200f, -0.122027f, 0.126944f, 0.020951f, 0.022898f, -0.175191f, 0.167121f, 0.138249f, 0.356999f, -0.039151f, 0.059733f, 0.288637f, 0.084353f, -0.071845f, -0.092996f, 0.005777f, 0.424806f, 0.372802f, 0.107718f, -0.061986f, 0.431888f },
  { -0.132900f, -0.060228f, 0.328036f, -0.331584f, -0.081633f, 0.380098f, -0.004007f, 0.098368f, 0.129225f, 0.236515f, -0.288716f, 0.079792f, 0.116139f, -0.479337f, 0.367491f, -0.091079f, 0.054534f, -0.153954f, 0.247397f, -0.335666f, 0.257647f, 0.326012f, -0.360136f, 0.088559f, -0.180431f, -0.414497f, -0.103812f, -0.001303f, -0.336204f, 0.037524f, -0.045737f, -0.549136f, 0.091935f, 0.006551f, -0.366501f, 0.165187f },
  { 0.211817f, 0.163635f, 0.150920f, 0.362132f, 0.161225f, -0.064941f, 0.307957f, -0.027199f, -0.070531f, 0.143675f, 0.086139f, 0.167912f, 0.256046f, 0.373639f, 0.272203f, 0.544793f, 0.318456f, 0.263979f, -0.051449f, 0.086146f, 0.082826f, -0.037409f, -0.011055f, -0.201681f, -0.036611f, -0.002027f, -0.260033f, 0.136368f, -0.022878f, 0.084518f, -0.105703f, 0.131684f, 0.080498f, -0.215747f, 0.010966f, 0.279355f },
};

static const float conv3_bias[4] = { 0.136521f, -0.336413f, 0.171784f, -0.212397f };

static const float fc1_weight[16][100] = {
  { -0.086538f, -0.060852f, 0.103433f, 0.347632f, 0.054640f, -0.186246f, 0.000861f, 0.079029f, 0.296222f, -0.231183f, -0.376854f, -0.103609f, -0.036075f, 0.092834f, -0.094690f, -0.130375f, -0.138068f, 0.077501f, -0.204024f, 0.071712f, 0.185217f, 0.213906f, 0.160790f, 0.184554f, 0.107615f, -0.225341f, -0.124859f, 0.172491f, 0.193032f, -0.093508f, -0.044276f, -0.046090f, 0.060934f, -0.003843f, 0.062542f, 0.086701f, 0.020180f, 0.139091f, -0.048975f, 0.172825f, -0.051129f, -0.046133f, 0.014181f, -0.045871f, -0.086945f, 0.089684f, 0.188041f, 0.141613f, 0.207320f, 0.082168f, -0.272246f, -0.476735f, -0.044536f, -0.127293f, -0.315649f, -0.018113f, -0.201672f, -0.135384f, -0.207625f, -0.185650f, -0.072037f, 0.026703f, -0.280997f, -0.161619f, 0.490237f, 0.243316f, 0.203556f, 0.141822f, 0.100763f, 0.222032f, 0.228458f, 0.213396f, -0.450702f, -0.296832f, 0.073729f, -0.003189f, 0.123932f, 0.188653f, -0.023754f, -0.126554f, 0.086906f, 0.010636f, -0.056227f, -0.074307f, -0.152952f, 0.053084f, -0.076736f, 0.151795f, 0.082845f, 0.135713f, 0.030216f, 0.205045f, 0.182578f, -0.041595f, 0.164450f, -0.092485f, -0.037750f, -0.171363f, 0.028249f, -0.036180f },
  { 0.204298f, 0.270709f, 0.216494f, -0.000678f, -0.362912f, 0.370941f, 0.162897f, 0.223114f, -0.148572f, -0.377749f, 0.144776f, 0.121436f, 0.154702f, 0.060661f, 0.084278f, -0.076126f, 0.045241f, -0.041181f, 0.074396f, 0.341538f, -0.134912f, -0.053954f, 0.057468f, 0.045406f, 0.056537f, -0.077956f, 0.112314f, 0.187848f, 0.068721f, 0.097437f, -0.036646f, 0.080311f, 0.078261f, -0.073704f, -0.112437f, -0.109719f, -0.002451f, -0.038214f, 0.020207f, -0.024177f, -0.088965f, -0.047433f, 0.078283f, 0.079222f, -0.051613f, -0.012578f, -0.114356f, -0.051745f, 0.087180f, 0.109326f, 0.003725f, -0.118715f, 0.092017f, -0.484093f, -0.264643f, -0.117501f, 0.130586f, 0.124614f, 0.409720f, 0.270658f, -0.333630f, -0.293840f, -0.008508f, 0.143861f, 0.060692f, 0.068893f, -0.088242f, -0.197844f, -0.225824f, 0.052466f, 0.033960f, 0.035792f, 0.097558f, 0.086146f, -0.040818f, -0.110049f, -0.209922f, -0.046839f, -0.068130f, -0.122029f, -0.197183f, -0.083491f, -0.003523f, 0.152255f, 0.096584f, 0.026038f, 0.007408f, 0.183680f, 0.115200f, 0.220493f, 0.199796f, 0.048305f, -0.123119f, 0.040285f, -0.034860f, 0.044229f, 0.041531f, -0.060384f, 0.116257f, 0.025177f },
  { -0.139883f, 0.130006f, 0.210905f, 0.077621f, 0.072078f, -0.037224f, 0.205304f, 0.067845f, 0.226021f, 0.072005f, 0.339295f, 0.043507f, 0.059296f, 0.166062f, 0.120533f, 0.063855f, 0.028049f, 0.102605f, -0.040303f, -0.221997f, -0.121119f, 0.028838f, 0.034690f, -0.062636f, -0.129426f, -0.088178f, 0.164811f, 0.225445f, 0.142742f, 0.047124f, 0.038566f, 0.165692f, 0.127751f, 0.023239f, -0.084868f, 0.206886f, 0.030332f, 0.190220f, 0.064055f, -0.000431f, 0.026653f, -0.032907f, -0.017159f, -0.048789f, -0.007048f, 0.092187f, 0.140905f, 0.061271f, -0.174084f, -0.000272f, -0.173200f, -0.358700f, -0.300335f, 0.015636f, 0.270543f, 0.310157f, 0.096374f, -0.561086f, -0.727134f, 0.158788f, 0.057297f, 0.202579f, -0.346124f, -0.585337f, -0.226450f, -0.039096f, -0.240826f, -0.065610f, 0.056429f, 0.113077f, -0.129712f, -0.184225f, -0.066450f, 0.253284f, 0.164052f, -0.202162f, -0.082216f, -0.007868f, -0.124372f, -0.202072f, 0.005080f, 0.125340f, -0.065849f, -0.037514f, -0.010771f, -0.174580f, -0.250703f, 0.090685f, 0.081901f, -0.090072f, -0.216114f, 0.016844f, 0.048828f, 0.009794f, -0.023447f, 0.041711f, -0.074042f, 0.090238f, -0.019281f, 0.102586f },
  { 0.014430f, 0.054458f, -0.006609f, -0.030497f, 0.028656f, -0.069883f, -0.281126f, -0.005378f, -0.112599f, 0.105222f, -0.001592f, 0.037468f, 0.198145f, 0.028186f, -0.015108f, 0.102517f, 0.068551f, 0.053913f, 0.108610f, 0.302956f, 0.173373f, 0.174484f, 0.187280f, 0.175899f, 0.108624f, 0.055429f, -0.105455f, -0.172685f, -0.251992f, -0.107470f, -0.140938f, -0.030281f, -0.074168f, 0.008327f, -0.112218f, -0.048923f, 0.195302f, 0.172983f, 0.017871f, 0.169695f, 0.056935f, 0.094521f, 0.101451f, 0.128040f, 0.015830f, -0.227882f, 0.027162f, -0.173153f, 0.041739f, 0.090295f, 0.275746f, 0.324876f, 0.288619f, 0.099064f, 0.284917f, -0.002635f, 0.123938f, 0.070760f, 0.147615f, -0.078405f, -0.024305f, -0.083958f, -0.163072f, -0.073983f, 0.072175f, -0.029909f, -0.127803f, -0.064082f, 0.056744f, 0.194138f, -0.018841f, -0.105366f, -0.156892f, 0.080508f, -0.112273f, 0.236341f, 0.088218f, 0.011600f, 0.042449f, -0.008700f, -0.204777f, -0.078137f, 0.022099f, -0.003965f, -0.132132f, -0.073287f, 0.053522f, -0.061463f, -0.146282f, -0.049367f, 0.077738f, 0.004488f, 0.027683f, 0.127299f, -0.025343f, -0.074385f, 0.073918f, -0.023906f, -0.077594f, -0.078818f },
  { 0.177525f, -0.028828f, -0.238313f, -0.071033f, -0.027156f, -0.135165f, -0.008458f, -0.170906f, -0.045640f, -0.089924f, -0.179268f, -0.026896f, 0.136086f, 0.087741f, -0.037921f, -0.042414f, 0.092933f, 0.126408f, 0.115236f, 0.057912f, -0.128998f, -0.052919f, -0.072207f, 0.006263f, -0.032109f, -0.029288f, 0.042183f, 0.010477f, 0.178598f, -0.099716f, 0.011476f, 0.018516f, -0.007695f, 0.086347f, 0.122657f, 0.006385f, -0.092840f, -0.015580f, 0.117066f, 0.028119f, -0.018459f, -0.137930f, -0.180989f, -0.187147f, -0.086539f, -0.149878f, -0.255543f, -0.187904f, -0.218567f, 0.005402f, -0.134946f, 0.064676f, -0.172456f, -0.086518f, -0.059693f, -0.229679f, -0.247134f, -0.088118f, 0.084986f, -0.109110f, 0.011671f, 0.031304f, -0.094121f, 0.749250f, 0.138064f, 0.170464f, 0.028461f, 0.084191f, 0.340741f, 0.081780f, -0.125290f, 0.184125f, 0.533946f, 0.314185f, -0.289672f, -0.099465f, -0.143807f, -0.118502f, -0.009405f, 0.090973f, -0.118599f, -0.093616f, -0.083843f, 0.218160f, -0.026516f, 0.135744f, 0.041947f, -0.072446f, 0.278476f, 0.073593f, -0.090064f, 0.030953f, 0.093456f, 0.041370f, -0.029860f, 0.044756f, 0.167863f, 0.177395f, -0.172121f, -0.020699f },
  { -0.226576f, -0.002216f, -0.052598f, -0.081378f, -0.014707f, -0.040824f, 0.014583f, 0.073501f, -0.061105f, 0.001770f, 0.003319f, 0.140026f, 0.205707f, 0.017663f, -0.085599f, 0.092791f, 0.274992f, 0.105771f, -0.171418f, -0.250977f, 0.220832f, 0.011615f, -0.032663f, -0.065097f, -0.015037f, -0.107240f, 0.077224f, 0.210133f, 0.227189f, 0.185908f, -0.239140f, -0.086701f, 0.097952f, 0.050582f, -0.006962f, -0.005405f, 0.142674f, -0.087523f, 0.053554f, -0.004498f, 0.126825f, 0.141853f, -0.112949f, -0.146017f, 0.000402f, 0.274147f, 0.203843f, 0.083006f, 0.075718f, 0.153481f, -0.218978f, -0.227751f, 0.203082f, -0.134170f, -0.309865f, 0.019714f, 0.137601f, 0.112604f, -0.023413f, 0.160390f, 0.183994f, 0.406908f, 0.154874f, 0.299065f, 0.375269f, 0.090226f, -0.193110f, 0.001585f, 0.011736f, 0.274297f, -0.102466f, -0.503518f, -0.432014f, 0.127351f, 0.047395f, -0.129356f, -0.039600f, -0.006195f, 0.005009f, 0.035989f, 0.001634f, 0.082271f, 0.036168f, 0.056120f, -0.034893f, -0.070944f, -0.042172f, 0.045008f, -0.003172f, 0.028084f, -0.117083f, -0.122121f, -0.247704f, -0.049505f, -0.005622f, 0.097759f, 0.004650f, 0.018180f, 0.129768f, 0.062325f },
  { 0.235385f, 0.156833f, 0.159518f, 0.179869f, -0.140284f, 0.338134f, 0.372361f, 0.191352f, -0.050095f, -0.042471f, 0.236356f, 0.056970f, -0.289082f, -0.241210f, 0.166034f, -0.139160f, 0.038176f, -0.006425f, 0.139523f, 0.155017f, 0.085951f, 0.181269f, -0.028196f, 0.074224f, 0.150748f, -0.003076f, 0.112018f, 0.087665f, 0.116087f, 0.085000f, -0.027583f, -0.248612f, 0.002867f, 0.054606f, -0.010920f, 0.055588f, -0.292955f, -0.056281f, 0.039295f, -0.176964f, 0.047377f, -0.115355f, 0.031654f, 0.039349f, -0.135161f, -0.026262f, -0.027514f, 0.098082f, 0.071209f, 0.022554f, 0.180081f, 0.399328f, 0.200435f, -0.130731f, 0.186257f, 0.055367f, 0.033900f, 0.251410f, 0.044087f, 0.040183f, -0.172359f, -0.612907f, -0.151767f, 0.064600f, -0.052228f, 0.023774f, -0.035891f, 0.054177f, -0.108357f, -0.192493f, -0.116526f, 0.090044f, 0.163457f, -0.045024f, 0.188327f, -0.485170f, -0.258129f, -0.071152f, 0.098231f, 0.144531f, -0.373986f, -0.230869f, -0.140705f, 0.205778f, 0.076096f, -0.260957f, -0.173213f, -0.042323f, 0.069622f, -0.051985f, -0.108114f, -0.028080f, 0.138117f, -0.075806f, -0.286701f, 0.223716f, 0.021039f, 0.056771f, -0.069861f, -0.062019f },
  { -0.010167f, -0.155276f, 0.035166f, 0.162555f, 0.155611f, -0.088260f, -0.161766f, 0.071285f, 0.075781f, 0.206071f, 0.041172f, 0.039587f, 0.217197f, -0.126186f, -0.066404f, 0.169573f, 0.184710f, -0.117531f, -0.032015f, -0.117225f, 0.127964f, 0.042384f, -0.040615f, -0.067392f, -0.079036f, 0.029647f, -0.103758f, -0.078644f, -0.044242f, -0.099937f, 0.115290f, 0.067237f, 0.011934f, -0.012043f, 0.021292f, 0.003851f, 0.019134f, -0.111877f, -0.040708f, 0.221822f, 0.197537f, 0.018899f, -0.132285f, 0.052910f, 0.027804f, -0.121535f, -0.199023f, -0.034259f, 0.006322f, 0.148508f, 0.254397f, 0.058650f, -0.089305f, 0.041211f, 0.528941f, 0.046382f, 0.268317f, 0.081696f, -0.156185f, -0.267824f, 0.160725f, 0.205177f, 0.429826f, 0.494967f, 0.087320f, 0.017511f, -0.141545f, -0.017800f, 0.224730f, 0.114669f, -0.017469f, -0.074787f, 0.550207f, 0.244211f, -0.097211f, 0.194984f, 0.165062f, 0.003486f, -0.064118f, -0.169279f, 0.115262f, 0.147659f, 0.140699f, -0.171492f, -0.154283f, -0.039847f, 0.131488f, -0.084843f, 0.042917f, -0.009462f, 0.038980f, -0.131927f, -0.222228f, 0.270374f, 0.040390f, 0.037759f, 0.047227f, 0.153118f, 0.108376f, -0.022999f },
  { 0.146288f, 0.119486f, -0.224771f, -0.552237f, -0.283235f, -0.027010f, 0.122398f, -0.200734f, -0.338123f, -0.224628f, 0.033360f, 0.016588f, 0.081931f, -0.127244f, -0.086812f, -0.003330f, 0.037726f, -0.122850f, -0.046964f, 0.042426f, 0.097474f, 0.086293f, 0.031162f, 0.159018f, 0.237612f, -0.129003f, 0.127005f, 0.118334f, -0.074163f, -0.188318f, 0.011808f, 0.049452f, 0.117152f, -0.100556f, -0.292824f, -0.066986f, -0.156602f, -0.032071f, -0.165821f, -0.227884f, 0.139930f, -0.166296f, 0.022383f, 0.049984f, 0.077974f, 0.197323f, 0.012406f, 0.213960f, 0.151176f, 0.178827f, 0.119635f, 0.214256f, 0.290498f, 0.105011f, -0.011501f, -0.082612f, 0.120396f, 0.223534f, 0.138870f, -0.033026f, 0.215860f, 0.101060f, -0.021407f, -0.049911f, -0.084175f, -0.078534f, 0.094713f, 0.404006f, 0.261373f, -0.408354f, -0.102130f, -0.004366f, 0.193548f, 0.078697f, -0.012777f, -0.122782f, -0.019162f, 0.222100f, 0.050796f, 0.066409f, -0.054507f, -0.022217f, 0.191899f, 0.061343f, -0.037967f, -0.031804f, 0.116504f, 0.083446f, 0.040870f, -0.201527f, -0.218086f, -0.161295f, -0.113979f, -0.044381f, -0.185894f, 0.090551f, -0.186718f, -0.070364f, 0.004284f, 0.122104f },
  { -0.092250f, -0.094155f, 0.017413f, -0.053371f, -0.061382f, -0.085597f, -0.058128f, -0.029403f, 0.051329f, 0.017267f, 0.003681f, 0.048897f, -0.021927f, -0.041572f, -0.089949f, -0.072028f, -0.061547f, -0.024217f, 0.032780f, 0.000046f, -0.007935f, -0.002521f, 0.034774f, 0.007408f, -0.083728f, 0.015984f, 0.050876f, 0.073272f, -0.030741f, 0.024153f, -0.019184f, -0.015823f, -0.015818f, 0.059009f, -0.059536f, -0.089197f, -0.015864f, -0.047739f, -0.025095f, -0.047349f, -0.079838f, 0.046685f, 0.053148f, 0.091109f, 0.038620f, -0.000582f, -0.099763f, -0.094770f, 0.027120f, -0.020249f, 0.000471f, 0.015555f, 0.053893f, -0.065890f, 0.055138f, -0.006319f, 0.054706f, 0.068264f, -0.038784f, 0.016731f, -0.079083f, -0.059668f, -0.068476f, 0.029691f, 0.036215f, -0.049126f, -0.087606f, 0.051495f, -0.033262f, 0.008647f, 0.023431f, -0.013239f, -0.059511f, 0.084209f, 0.010284f, -0.045975f, -0.063091f, 0.004947f, -0.012204f, 0.040783f, 0.009704f, 0.018520f, -0.046577f, -0.053677f, -0.001611f, 0.050605f, -0.064152f, 0.009598f, -0.074890f, 0.048306f, -0.067014f, 0.090650f, -0.082359f, 0.045867f, -0.014204f, 0.011646f, -0.085271f, -0.023409f, -0.007812f, -0.026075f },
  { 0.053617f, -0.101192f, -0.070682f, -0.141117f, 0.065601f, -0.142485f, -0.265056f, -0.191876f, -0.308508f, -0.066071f, -0.040597f, 0.072566f, -0.034181f, -0.135714f, 0.189118f, -0.062896f, -0.056665f, 0.008874f, 0.091465f, 0.071715f, -0.005411f, -0.028890f, -0.160621f, -0.024770f, -0.046877f, -0.015870f, 0.005771f, 0.125539f, 0.055151f, 0.168528f, 0.067672f, 0.260008f, -0.053844f, -0.071695f, 0.094730f, 0.229550f, 0.387260f, -0.093721f, -0.007637f, 0.011976f, -0.022076f, -0.006971f, 0.019200f, -0.027160f, -0.053716f, -0.096754f, -0.045346f, 0.082976f, 0.040568f, 0.120498f, -0.085876f, -0.105827f, -0.323544f, -0.303790f, -0.337513f, 0.142002f, 0.444354f, 0.109839f, 0.352499f, 0.166699f, -0.077198f, 0.080417f, -0.125082f, -0.042183f, -0.086870f, -0.144295f, -0.255428f, -0.209386f, -0.320230f, -0.422832f, 0.205531f, 0.466285f, 0.304125f, 0.265752f, -0.130532f, 0.064418f, 0.141062f, 0.155448f, 0.201974f, -0.041193f, -0.022276f, 0.212230f, 0.031071f, -0.017893f, 0.214322f, -0.045976f, 0.128603f, -0.035217f, 0.168920f, 0.050508f, 0.320735f, 0.334473f, 0.080547f, 0.139285f, -0.140296f, -0.023261f, -0.005878f, -0.014913f, -0.044433f, -0.013338f },
  { -0.041703f, -0.060909f, -0.084994f, 0.072949f, 0.068831f, 0.076885f, 0.053822f, -0.109598f, 0.065440f, 0.035765f, -0.069804f, 0.046009f, 0.010475f, -0.003246f, -0.098099f, -0.113755f, 0.009002f, -0.117246f, 0.051582f, -0.034511f, -0.035819f, -0.002928f, -0.113516f, 0.052480f, 0.061075f, 0.040837f, 0.021336f, -0.113338f, -0.067568f, -0.017468f, -0.099030f, -0.099166f, -0.124374f, -0.099418f, 0.033031f, -0.032386f, -0.083044f, 0.060468f, -0.035562f, 0.029429f, 0.033653f, -0.103649f, -0.056740f, -0.034129f, -0.126845f, -0.097248f, -0.010197f, -0.069384f, -0.109298f, 0.001100f, -0.031633f, -0.029169f, -0.085987f, 0.098680f, -0.001703f, -0.002533f, -0.052091f, 0.093854f, 0.082442f, 0.056076f, 0.091422f, 0.043584f, 0.094215f, 0.028241f, -0.000554f, 0.076674f, 0.066235f, 0.019738f, 0.060471f, -0.084456f, -0.064597f, 0.082601f, 0.082165f, 0.072236f, -0.031788f, -0.106945f, 0.072652f, -0.063177f, 0.055397f, -0.047893f, -0.117326f, 0.050709f, -0.083419f, -0.071006f, -0.111582f, -0.005154f, -0.003309f, -0.130267f, 0.055733f, 0.034244f, 0.000954f, -0.009804f, -0.045848f, -0.016773f, -0.034404f, -0.016538f, 0.082088f, 0.000410f, -0.030438f, -0.043961f },
  { 0.108543f, 0.082687f, 0.033297f, 0.050751f, 0.169303f, 0.135152f, 0.023450f, -0.079937f, -0.126393f, 0.323747f, 0.303228f, 0.164468f, 0.035134f, 0.185670f, 0.234037f, 0.123329f, 0.039266f, 0.141026f, -0.025121f, -0.268352f, 0.210162f, -0.014421f, 0.016992f, -0.082318f, 0.059206f, 0.097424f, 0.032889f, -0.135988f, -0.043543f, -0.062494f, -0.103161f, -0.147422f, -0.078094f, -0.091710f, -0.097491f, 0.008777f, 0.077477f, 0.291427f, 0.134726f, -0.048226f, 0.134792f, -0.096601f, 0.197547f, 0.048175f, 0.052262f, 0.212147f, 0.030324f, 0.145978f, 0.175489f, 0.245921f, 0.064728f, 0.484222f, 0.627653f, 0.498716f, 0.571868f, 0.143418f, 0.183260f, 0.072211f, -0.188354f, -0.041005f, 0.053346f, 0.112615f, -0.268235f, -0.295251f, -0.166808f, -0.159229f, 0.139464f, 0.000851f, 0.118605f, -0.089136f, 0.006592f, -0.369889f, 0.074597f, 0.073650f, 0.393676f, -0.039545f, 0.124847f, 0.174740f, 0.132712f, 0.117526f, -0.020751f, -0.029321f, -0.051512f, -0.071809f, 0.021862f, -0.203262f, -0.166876f, 0.110813f, 0.058466f, -0.112512f, -0.017673f, -0.008656f, 0.062911f, -0.102125f, -0.092806f, 0.050521f, -0.112222f, -0.012296f, 0.121641f, 0.201135f },
  { 0.035990f, 0.023159f, -0.089856f, 0.113498f, 0.010070f, -0.112136f, -0.111545f, -0.065946f, -0.021254f, 0.343570f, -0.164226f, -0.127451f, 0.014481f, 0.198744f, 0.002382f, 0.108628f, -0.038309f, -0.015116f, 0.047732f, -0.310876f, -0.014770f, -0.042717f, -0.010310f, 0.067572f, -0.080060f, 0.125674f, 0.057037f, -0.032592f, -0.062145f, -0.013167f, 0.078695f, -0.016497f, -0.037520f, 0.082679f, 0.078960f, -0.024489f, -0.128195f, 0.100901f, 0.178340f, 0.124566f, 0.081367f, 0.061879f, 0.019573f, 0.117557f, 0.011889f, 0.069018f, 0.055077f, 0.009704f, -0.176183f, -0.413228f, 0.105457f, 0.429700f, 0.153869f, 0.632461f, 0.361497f, -0.027801f, -0.330316f, -0.364325f, -0.152237f, 0.175203f, 0.202175f, 0.209419f, 0.029248f, -0.153613f, -0.162344f, 0.198992f, 0.296279f, -0.012646f, 0.012966f, 0.325124f, -0.140106f, -0.093386f, -0.313278f, -0.211909f, 0.028025f, 0.080586f, 0.068111f, 0.000972f, 0.100525f, 0.052854f, 0.166169f, -0.014965f, 0.155826f, 0.120407f, 0.044407f, 0.148238f, 0.137264f, 0.081432f, -0.022446f, 0.026824f, -0.190912f, -0.213899f, -0.178508f, 0.034507f, 0.128974f, -0.027541f, -0.085656f, 0.169432f, 0.220086f, -0.017500f },
  { -0.110164f, -0.147589f, -0.010724f, 0.000848f, 0.304955f, -0.208944f, 0.074663f, 0.132900f, 0.391347f, 0.242137f, 0.091922f, -0.117704f, -0.127977f, 0.081092f, -0.030268f, -0.073209f, -0.197886f, -0.240744f, -0.050998f, -0.099549f, -0.006280f, -0.041315f, 0.003231f, 0.007307f, 0.048316f, 0.047618f, 0.097820f, -0.138688f, -0.059584f, -0.000599f, 0.024545f, 0.189958f, 0.117943f, 0.124367f, 0.012820f, 0.143613f, -0.081044f, -0.117891f, -0.136210f, 0.087693f, -0.161738f, -0.119934f, 0.019088f, 0.076970f, -0.044213f, 0.114012f, 0.154408f, 0.084456f, 0.046897f, 0.031446f, 0.293292f, 0.338618f, 0.184384f, 0.258957f, 0.489525f, 0.193693f, 0.224105f, 0.129011f, -0.373667f, -0.067840f, -0.063170f, 0.022423f, 0.413503f, 0.012074f, -0.117948f, 0.002794f, -0.007345f, 0.194026f, 0.026257f, 0.129608f, 0.039017f, 0.289725f, -0.441768f, -0.248700f, -0.125912f, 0.216255f, 0.143282f, 0.036859f, -0.127653f, -0.113044f, 0.030308f, 0.006949f, 0.123906f, -0.157250f, 0.000852f, -0.000402f, 0.280121f, 0.168704f, -0.125384f, -0.036347f, 0.118135f, 0.267091f, 0.037875f, -0.084184f, -0.016038f, -0.073860f, 0.053518f, -0.011211f, 0.043088f, 0.085045f },
  { 0.047631f, 0.026180f, -0.130522f, -0.028945f, 0.049374f, -0.032704f, 0.028700f, 0.089849f, -0.055598f, 0.012624f, 0.005834f, 0.051809f, -0.037536f, 0.044450f, -0.046579f, 0.013725f, 0.026810f, 0.069444f, -0.005522f, -0.093579f, -0.019210f, -0.031847f, 0.076410f, -0.074161f, 0.064321f, -0.128098f, -0.016040f, -0.061301f, -0.055026f, -0.076268f, -0.052704f, -0.067932f, 0.018347f, 0.019828f, -0.053511f, -0.018208f, 0.025879f, -0.032829f, 0.054896f, -0.049791f, 0.051130f, -0.114063f, -0.101371f, 0.024616f, -0.056464f, -0.073739f, -0.088747f, -0.088436f, -0.067666f, -0.031851f, 0.041362f, 0.065803f, 0.013563f, 0.190175f, -0.128004f, 0.017072f, -0.093440f, -0.021004f, 0.084867f, 0.048096f, -0.031273f, -0.045615f, 0.040328f, 0.031453f, -0.040373f, -0.003134f, -0.013273f, 0.047352f, -0.072997f, -0.141133f, -0.004068f, 0.080892f, -0.055299f, 0.077766f, -0.050713f, 0.031956f, 0.104195f, -0.019580f, -0.117930f, 0.092793f, 0.007344f, -0.095614f, -0.100512f, -0.013807f, -0.010691f, 0.081625f, -0.066977f, 0.015917f, -0.064762f, -0.081621f, -0.122323f, -0.112552f, 0.034912f, 0.034801f, -0.072045f, -0.090044f, -0.030151f, -0.122304f, -0.111326f, 0.061414f },
};

static const float fc1_bias[16] = { 0.176908f, 0.103600f, 0.000735f, -0.013960f, 0.125286f, 0.131472f, -0.027245f, 0.058896f, 0.006468f, -0.077052f, -0.013088f, 0.003326f, 0.026410f, -0.140497f, 0.045726f, -0.132824f };

static const float fc2_weight[10][16] = {
  { 0.136503f, -0.016638f, -0.233547f, 0.151716f, -0.089069f, 0.127751f, -0.054268f, -0.235685f, -0.045590f, -0.164611f, -0.069767f, 0.156765f, -0.448653f, 0.003388f, 0.230304f, -0.225234f },
  { -0.066782f, -0.342975f, -0.160249f, -0.247247f, 0.428117f, -0.216997f, 0.365911f, 0.039914f, 0.512716f, -0.161684f, -0.187035f, -0.242703f, 0.255219f, -0.021595f, 0.024916f, 0.136836f },
  { 0.068227f, 0.250858f, -0.120247f, 0.176393f, -0.173510f, -0.054531f, 0.161032f, -0.111778f, 0.049811f, 0.136977f, -0.031802f, -0.110537f, 0.095415f, -0.584554f, 0.101753f, -0.080324f },
  { -0.157508f, 0.153690f, 0.151732f, 0.036502f, -0.109122f, 0.152797f, -0.003798f, -0.343643f, 0.004775f, -0.016913f, -0.347643f, -0.098198f, 0.221309f, 0.251741f, -0.226993f, 0.167857f },
  { -0.406363f, -0.081459f, -0.225200f, 0.139062f, 0.075122f, -0.035604f, -0.168496f, 0.079213f, 0.031062f, -0.055956f, 0.321068f, -0.112818f, 0.201588f, 0.035726f, -0.136342f, 0.137028f },
  { -0.187673f, -0.213265f, 0.228312f, 0.194482f, -0.176274f, 0.075251f, -0.156488f, 0.083207f, -0.278835f, 0.086608f, -0.315584f, -0.022915f, 0.289724f, 0.024461f, 0.221285f, 0.174085f },
  { 0.219114f, -0.369993f, -0.270030f, 0.292987f, -0.115796f, -0.339339f, -0.291002f, -0.072297f, -0.314544f, -0.150353f, -0.067391f, -0.255058f, 0.110368f, 0.181265f, 0.170202f, 0.173459f },
  { -0.346581f, 0.208504f, 0.055532f, -0.099375f, 0.129241f, -0.245156f, 0.325769f, 0.311413f, -0.077134f, 0.249994f, -0.104560f, -0.170806f, -0.086069f, 0.032926f, 0.163635f, 0.034950f },
  { -0.017274f, -0.026255f, 0.235526f, -0.073107f, -0.301583f, -0.081577f, -0.115366f, -0.346916f, -0.122203f, -0.182190f, 0.209614f, 0.017133f, 0.216555f, -0.094193f, 0.140707f, -0.030703f },
  { 0.007324f, -0.127989f, 0.301346f, -0.318161f, 0.231266f, 0.206804f, -0.268184f, 0.217962f, 0.171861f, -0.149348f, -0.013994f, 0.029578f, -0.121251f, -0.123130f, -0.442591f, 0.084602f },
};

static const float fc2_bias[10] = { -0.072189f, 0.256798f, -0.151785f, -0.136455f, -0.068374f, -0.175869f, -0.218143f, -0.172017f, -0.238622f, 0.093457f };

#endif
